<?xml version="1.0"?>
<opencv_storage>
<cascade>
  <stageType>BOOST</stageType>
  <featureType>HAAR</featureType>
  <height>24</height>
  <width>24</width>
  <stageParams>
    <boostType>GAB</boostType>
    <minHitRate>9.9500000476837158e-01</minHitRate>
    <maxFalseAlarm>5.0000000000000000e-01</maxFalseAlarm>
    <weightTrimRate>9.4999999999999996e-01</weightTrimRate>
    <maxDepth>1</maxDepth>
    <maxWeakCount>100</maxWeakCount></stageParams>
  <featureParams>
    <maxCatCount>0</maxCatCount>
    <featSize>1</featSize>
    <mode>ALL</mode></featureParams>
  <stageNum>10</stageNum>
  <stages>
    <!-- stage 0 -->
    <_>
      <maxWeakCount>7</maxWeakCount>
      <stageThreshold>-1.3602594137191772e+00</stageThreshold>
      <weakClassifiers>
        <_>
          <internalNodes>
            0 -1 87 -3.1205885112285614e-02</internalNodes>
          <leafValues>
            3.4145298600196838e-01 -6.0138887166976929e-01</leafValues></_>
        <_>
          <internalNodes>
            0 -1 3 5.6550102308392525e-03</internalNodes>
          <leafValues>
            -4.3613725900650024e-01 4.1704833507537842e-01</leafValues></_>
        <_>
          <internalNodes>
            0 -1 45 1.7024322878569365e-03</internalNodes>
          <leafValues>
            2.3011299967765808e-01 -6.0584795475006104e-01</leafValues></_>
        <_>
          <internalNodes>
            0 -1 41 5.0952727906405926e-04</internalNodes>
          <leafValues>
            2.3501795530319214e-01 -6.5726840496063232e-01</leafValues></_>
        <_>
          <internalNodes>
            0 -1 119 -9.0883311349898577e-04</internalNodes>
          <leafValues>
            -7.0777183771133423e-01 1.5218193829059601e-01</leafValues></_>
        <_>
          <internalNodes>
            0 -1 18 -9.5809705089777708e-04</internalNodes>
          <leafValues>
            -6.9058370590209961e-01 1.2559838593006134e-01</leafValues></_>
        <_>
          <internalNodes>
            0 -1 15 -3.1536906957626343e-02</internalNodes>
          <leafValues>
            3.9348763227462769e-01 -2.8023901581764221e-01</leafValues></_></weakClassifiers></_>
    <!-- stage 1 -->
    <_>
      <maxWeakCount>11</maxWeakCount>
      <stageThreshold>-1.0922052860260010e+00</stageThreshold>
      <weakClassifiers>
        <_>
          <internalNodes>
            0 -1 70 4.2731361463665962e-03</internalNodes>
          <leafValues>
            -4.3945276737213135e-01 3.8345864415168762e-01</leafValues></_>
        <_>
          <internalNodes>
            0 -1 43 -1.0067039169371128e-02</internalNodes>
          <leafValues>
            6.2291002273559570e-01 -2.1524587273597717e-01</leafValues></_>
        <_>
          <internalNodes>
            0 -1 104 -6.0126319294795394e-04</internalNodes>
          <leafValues>
            -6.8678528070449829e-01 1.8553191423416138e-01</leafValues></_>
        <_>
          <internalNodes>
            0 -1 69 9.5303787384182215e-04</internalNodes>
          <leafValues>
            1.7750506103038788e-01 -7.9730379581451416e-01</leafValues></_>
        <_>
          <internalNodes>
            0 -1 23 8.1266555935144424e-03</internalNodes>
          <leafValues>
            -2.3305153846740723e-01 5.9136539697647095e-01</leafValues></_>
        <_>
          <internalNodes>
            0 -1 76 7.8179966658353806e-03</internalNodes>
          <leafValues>
            -1.5455220639705658e-01 6.8988108634948730e-01</leafValues></_>
        <_>
          <internalNodes>
            0 -1 123 1.0542145464569330e-03</internalNodes>
          <leafValues>
            1.9516497850418091e-01 -5.9947317838668823e-01</leafValues></_>
        <_>
          <internalNodes>
            0 -1 89 -7.1339565329253674e-04</internalNodes>
          <leafValues>
            -6.4463931322097778e-01 1.8574044108390808e-01</leafValues></_>
        <_>
          <internalNodes>
            0 -1 34 -6.1015313258394599e-04</internalNodes>
          <leafValues>
            -5.6943356990814209e-01 1.5717492997646332e-01</leafValues></_>
        <_>
          <internalNodes>
            0 -1 21 -6.1570256948471069e-03</internalNodes>
          <leafValues>
            5.1712316274642944e-01 -2.1992868185043335e-01</leafValues></_>
        <_>
          <internalNodes>
            0 -1 57 -6.1789704486727715e-03</internalNodes>
          <leafValues>
            -6.4712303876876831e-01 1.4869405329227448e-01</leafValues></_></weakClassifiers></_>
    <!-- stage 2 -->
    <_>
      <maxWeakCount>13</maxWeakCount>
      <stageThreshold>-1.2651983499526978e+00</stageThreshold>
      <weakClassifiers>
        <_>
          <internalNodes>
            0 -1 0 3.4318130929023027e-03</internalNodes>
          <leafValues>
            -4.3154996633529663e-01 3.0490297079086304e-01</leafValues></_>
        <_>
          <internalNodes>
            0 -1 10 -3.8135778158903122e-02</internalNodes>
          <leafValues>
            5.6665164232254028e-01 -2.0353512465953827e-01</leafValues></_>
        <_>
          <internalNodes>
            0 -1 95 -4.9383239820599556e-03</internalNodes>
          <leafValues>
            3.2302084565162659e-01 -3.6862429976463318e-01</leafValues></_>
        <_>
          <internalNodes>
            0 -1 6 1.6550690634176135e-03</internalNodes>
          <leafValues>
            1.0586769878864288e-01 -7.5398367643356323e-01</leafValues></_>
        <_>
          <internalNodes>
            0 -1 8 5.5677805095911026e-02</internalNodes>
          <leafValues>
            -2.9075986146926880e-01 3.5071185231208801e-01</leafValues></_>
        <_>
          <internalNodes>
            0 -1 110 9.8996944725513458e-03</internalNodes>
          <leafValues>
            -2.6254677772521973e-01 3.8694116473197937e-01</leafValues></_>
        <_>
          <internalNodes>
            0 -1 103 -5.1958914846181870e-03</internalNodes>
          <leafValues>
            5.8919036388397217e-01 -1.7285819351673126e-01</leafValues></_>
        <_>
          <internalNodes>
            0 -1 111 6.7395716905593872e-03</internalNodes>
          <leafValues>
            1.4993080496788025e-01 -7.6177704334259033e-01</leafValues></_>
        <_>
          <internalNodes>
            0 -1 48 -3.0151306418702006e-04</internalNodes>
          <leafValues>
            -6.6079145669937134e-01 1.1984993517398834e-01</leafValues></_>
        <_>
          <internalNodes>
            0 -1 12 -3.0394927598536015e-03</internalNodes>
          <leafValues>
            -5.3806847333908081e-01 1.6808448731899261e-01</leafValues></_>
        <_>
          <internalNodes>
            0 -1 28 -1.1572072282433510e-02</internalNodes>
          <leafValues>
            7.7107268571853638e-01 -1.5043962001800537e-01</leafValues></_>
        <_>
          <internalNodes>
            0 -1 131 -2.2416268475353718e-03</internalNodes>
          <leafValues>
            5.7781434059143066e-01 -1.5066833794116974e-01</leafValues></_>
        <_>
          <internalNodes>
            0 -1 88 -1.1722643648681697e-05</internalNodes>
          <leafValues>
            2.8095903992652893e-01 -3.7527832388877869e-01</leafValues></_></weakClassifiers></_>
    <!-- stage 3 -->
    <_>
      <maxWeakCount>13</maxWeakCount>
      <stageThreshold>-1.3649833202362061e+00</stageThreshold>
      <weakClassifiers>
        <_>
          <internalNodes>
            0 -1 4 4.2033363133668900e-03</internalNodes>
          <leafValues>
            -3.0474105477333069e-01 5.0769233703613281e-01</leafValues></_>
        <_>
          <internalNodes>
            0 -1 72 8.6190353613346815e-04</internalNodes>
          <leafValues>
            2.1438376605510712e-01 -4.8508810997009277e-01</leafValues></_>
        <_>
          <internalNodes>
            0 -1 2 1.9310511648654938e-02</internalNodes>
          <leafValues>
            -2.3791745305061340e-01 4.7243633866310120e-01</leafValues></_>
        <_>
          <internalNodes>
            0 -1 50 -1.4647112038801424e-05</internalNodes>
          <leafValues>
            2.0760056376457214e-01 -5.1730126142501831e-01</leafValues></_>
        <_>
          <internalNodes>
            0 -1 49 7.0197007153183222e-04</internalNodes>
          <leafValues>
            2.0227897167205811e-01 -5.5251103639602661e-01</leafValues></_>
        <_>
          <internalNodes>
            0 -1 97 -4.9469266086816788e-03</internalNodes>
          <leafValues>
            6.1478573083877563e-01 -1.7736501991748810e-01</leafValues></_>
        <_>
          <internalNodes>
            0 -1 77 -7.7950378181412816e-04</internalNodes>
          <leafValues>
            -4.9922218918800354e-01 2.2748976945877075e-01</leafValues></_>
        <_>
          <internalNodes>
            0 -1 117 -1.3221676927059889e-03</internalNodes>
          <leafValues>
            -6.2828242778778076e-01 1.1863399296998978e-01</leafValues></_>
        <_>
          <internalNodes>
            0 -1 85 -3.7824846804141998e-02</internalNodes>
          <leafValues>
            6.1104339361190796e-01 -1.6477249562740326e-01</leafValues></_>
        <_>
          <internalNodes>
            0 -1 68 -9.3475431203842163e-03</internalNodes>
          <leafValues>
            6.5489417314529419e-01 -1.5899859368801117e-01</leafValues></_>
        <_>
          <internalNodes>
            0 -1 130 -1.6772178933024406e-03</internalNodes>
          <leafValues>
            -8.3771431446075439e-01 1.5882806479930878e-01</leafValues></_>
        <_>
          <internalNodes>
            0 -1 11 -6.2738642096519470e-02</internalNodes>
          <leafValues>
            4.7210621833801270e-01 -2.2735032439231873e-01</leafValues></_>
        <_>
          <internalNodes>
            0 -1 99 -8.1712222890928388e-04</internalNodes>
          <leafValues>
            -5.2412277460098267e-01 2.0313027501106262e-01</leafValues></_></weakClassifiers></_>
    <!-- stage 4 -->
    <_>
      <maxWeakCount>13</maxWeakCount>
      <stageThreshold>-1.2684421539306641e+00</stageThreshold>
      <weakClassifiers>
        <_>
          <internalNodes>
            0 -1 46 5.9883063659071922e-03</internalNodes>
          <leafValues>
            -2.5728738307952881e-01 6.2743777036666870e-01</leafValues></_>
        <_>
          <internalNodes>
            0 -1 125 -4.9802672583609819e-04</internalNodes>
          <leafValues>
            -6.0400223731994629e-01 1.7231981456279755e-01</leafValues></_>
        <_>
          <internalNodes>
            0 -1 112 3.8706390187144279e-03</internalNodes>
          <leafValues>
            -1.8938967585563660e-01 5.4625916481018066e-01</leafValues></_>
        <_>
          <internalNodes>
            0 -1 51 -2.7625244110822678e-02</internalNodes>
          <leafValues>
            -7.9826444387435913e-01 1.0883394628763199e-01</leafValues></_>
        <_>
          <internalNodes>
            0 -1 54 6.1849160119891167e-03</internalNodes>
          <leafValues>
            1.7535918951034546e-01 -7.1199727058410645e-01</leafValues></_>
        <_>
          <internalNodes>
            0 -1 53 -6.9335578009486198e-03</internalNodes>
          <leafValues>
            4.8166134953498840e-01 -2.1424791216850281e-01</leafValues></_>
        <_>
          <internalNodes>
            0 -1 109 -1.5839971601963043e-03</internalNodes>
          <leafValues>
            -6.4868539571762085e-01 1.2815685570240021e-01</leafValues></_>
        <_>
          <internalNodes>
            0 -1 7 -1.9399952143430710e-02</internalNodes>
          <leafValues>
            4.4016996026039124e-01 -2.0810893177986145e-01</leafValues></_>
        <_>
          <internalNodes>
            0 -1 36 4.1648204205557704e-04</internalNodes>
          <leafValues>
            1.5261805057525635e-01 -6.5895187854766846e-01</leafValues></_>
        <_>
          <internalNodes>
            0 -1 101 1.6467427834868431e-02</internalNodes>
          <leafValues>
            -1.6953738033771515e-01 5.5966800451278687e-01</leafValues></_>
        <_>
          <internalNodes>
            0 -1 60 -8.3047049120068550e-03</internalNodes>
          <leafValues>
            5.7619220018386841e-01 -1.5037773549556732e-01</leafValues></_>
        <_>
          <internalNodes>
            0 -1 24 5.3627742454409599e-04</internalNodes>
          <leafValues>
            1.5894977748394012e-01 -6.5850007534027100e-01</leafValues></_>
        <_>
          <internalNodes>
            0 -1 26 1.4180943369865417e-02</internalNodes>
          <leafValues>
            -1.9940871000289917e-01 4.8540222644805908e-01</leafValues></_></weakClassifiers></_>
    <!-- stage 5 -->
    <_>
      <maxWeakCount>13</maxWeakCount>
      <stageThreshold>-1.1068527698516846e+00</stageThreshold>
      <weakClassifiers>
        <_>
          <internalNodes>
            0 -1 62 1.7121576238423586e-03</internalNodes>
          <leafValues>
            -4.8408550024032593e-01 2.1670146286487579e-01</leafValues></_>
        <_>
          <internalNodes>
            0 -1 120 1.2679444625973701e-03</internalNodes>
          <leafValues>
            -3.7055012583732605e-01 3.3209905028343201e-01</leafValues></_>
        <_>
          <internalNodes>
            0 -1 64 -3.0751228332519531e-02</internalNodes>
          <leafValues>
            -5.0218284130096436e-01 2.1650849282741547e-01</leafValues></_>
        <_>
          <internalNodes>
            0 -1 17 -4.8033371567726135e-03</internalNodes>
          <leafValues>
            4.6450063586235046e-01 -2.1058860421180725e-01</leafValues></_>
        <_>
          <internalNodes>
            0 -1 132 -3.3391639590263367e-03</internalNodes>
          <leafValues>
            3.7898221611976624e-01 -2.2660674154758453e-01</leafValues></_>
        <_>
          <internalNodes>
            0 -1 11 -5.5425941944122314e-02</internalNodes>
          <leafValues>
            5.3143817186355591e-01 -1.8128994107246399e-01</leafValues></_>
        <_>
          <internalNodes>
            0 -1 25 3.9251579437404871e-04</internalNodes>
          <leafValues>
            -2.7013736963272095e-01 3.0390053987503052e-01</leafValues></_>
        <_>
          <internalNodes>
            0 -1 79 1.1836302292067558e-05</internalNodes>
          <leafValues>
            -3.5877335071563721e-01 2.4258592724800110e-01</leafValues></_>
        <_>
          <internalNodes>
            0 -1 27 -6.4868391491472721e-03</internalNodes>
          <leafValues>
            4.3903622031211853e-01 -1.8819084763526917e-01</leafValues></_>
        <_>
          <internalNodes>
            0 -1 47 -4.4045678805559874e-04</internalNodes>
          <leafValues>
            2.9895153641700745e-01 -2.6364779472351074e-01</leafValues></_>
        <_>
          <internalNodes>
            0 -1 16 -4.4307866482995450e-04</internalNodes>
          <leafValues>
            -4.4866043329238892e-01 1.9500057399272919e-01</leafValues></_>
        <_>
          <internalNodes>
            0 -1 80 4.2851828038692474e-03</internalNodes>
          <leafValues>
            -2.6798576116561890e-01 3.3293733000755310e-01</leafValues></_>
        <_>
          <internalNodes>
            0 -1 58 3.8492511957883835e-03</internalNodes>
          <leafValues>
            1.4600133895874023e-01 -6.3542777299880981e-01</leafValues></_></weakClassifiers></_>
    <!-- stage 6 -->
    <_>
      <maxWeakCount>18</maxWeakCount>
      <stageThreshold>-1.3137400150299072e+00</stageThreshold>
      <weakClassifiers>
        <_>
          <internalNodes>
            0 -1 75 1.8105860799551010e-02</internalNodes>
          <leafValues>
            -2.7601572871208191e-01 6.9655174016952515e-01</leafValues></_>
        <_>
          <internalNodes>
            0 -1 19 -1.8130694516003132e-03</internalNodes>
          <leafValues>
            4.5976841449737549e-01 -2.3377986252307892e-01</leafValues></_>
        <_>
          <internalNodes>
            0 -1 37 -2.7186376973986626e-04</internalNodes>
          <leafValues>
            2.6815608143806458e-01 -4.2991936206817627e-01</leafValues></_>
        <_>
          <internalNodes>
            0 -1 20 -6.5769404172897339e-03</internalNodes>
          <leafValues>
            5.6631916761398315e-01 -1.4879141747951508e-01</leafValues></_>
        <_>
          <internalNodes>
            0 -1 113 6.8067340180277824e-04</internalNodes>
          <leafValues>
            1.6640600562095642e-01 -5.3868889808654785e-01</leafValues></_>
        <_>
          <internalNodes>
            0 -1 31 -5.1137252012267709e-04</internalNodes>
          <leafValues>
            -5.0170892477035522e-01 1.6696895658969879e-01</leafValues></_>
        <_>
          <internalNodes>
            0 -1 1 -2.7746967971324921e-03</internalNodes>
          <leafValues>
            4.7292041778564453e-01 -1.6935275495052338e-01</leafValues></_>
        <_>
          <internalNodes>
            0 -1 105 -7.4516953900456429e-03</internalNodes>
          <leafValues>
            3.8056090474128723e-01 -2.5174245238304138e-01</leafValues></_>
        <_>
          <internalNodes>
            0 -1 129 7.1684764698147774e-03</internalNodes>
          <leafValues>
            -2.6795166730880737e-01 3.2411906123161316e-01</leafValues></_>
        <_>
          <internalNodes>
            0 -1 81 2.9906830750405788e-03</internalNodes>
          <leafValues>
            1.2138999253511429e-01 -6.1679351329803467e-01</leafValues></_>
        <_>
          <internalNodes>
            0 -1 56 -2.9142608400434256e-04</internalNodes>
          <leafValues>
            -4.0590834617614746e-01 1.8451775610446930e-01</leafValues></_>
        <_>
          <internalNodes>
            0 -1 108 4.8102393746376038e-02</internalNodes>
          <leafValues>
            -1.3420917093753815e-01 6.6061741113662720e-01</leafValues></_>
        <_>
          <internalNodes>
            0 -1 78 -3.8309129886329174e-03</internalNodes>
          <leafValues>
            2.8998580574989319e-01 -3.0850994586944580e-01</leafValues></_>
        <_>
          <internalNodes>
            0 -1 84 5.2619427442550659e-03</internalNodes>
          <leafValues>
            -1.7901301383972168e-01 4.5758891105651855e-01</leafValues></_>
        <_>
          <internalNodes>
            0 -1 124 5.8010499924421310e-04</internalNodes>
          <leafValues>
            1.2755604088306427e-01 -6.6371858119964600e-01</leafValues></_>
        <_>
          <internalNodes>
            0 -1 102 -7.6376926153898239e-03</internalNodes>
          <leafValues>
            5.8545821905136108e-01 -1.7172153294086456e-01</leafValues></_>
        <_>
          <internalNodes>
            0 -1 52 -1.6188047826290131e-02</internalNodes>
          <leafValues>
            -6.2258070707321167e-01 1.2879002094268799e-01</leafValues></_>
        <_>
          <internalNodes>
            0 -1 39 -1.1599302524700761e-03</internalNodes>
          <leafValues>
            3.1267628073692322e-01 -2.6364567875862122e-01</leafValues></_></weakClassifiers></_>
    <!-- stage 7 -->
    <_>
      <maxWeakCount>15</maxWeakCount>
      <stageThreshold>-1.0170578956604004e+00</stageThreshold>
      <weakClassifiers>
        <_>
          <internalNodes>
            0 -1 86 1.4578733593225479e-02</internalNodes>
          <leafValues>
            -3.9790385961532593e-01 2.3668240010738373e-01</leafValues></_>
        <_>
          <internalNodes>
            0 -1 66 5.3571984171867371e-03</internalNodes>
          <leafValues>
            1.6644133627414703e-01 -4.9414858222007751e-01</leafValues></_>
        <_>
          <internalNodes>
            0 -1 133 6.3027889700606465e-04</internalNodes>
          <leafValues>
            -2.1775195002555847e-01 3.5569137334823608e-01</leafValues></_>
        <_>
          <internalNodes>
            0 -1 90 -9.6276067197322845e-03</internalNodes>
          <leafValues>
            5.0482100248336792e-01 -1.5504652261734009e-01</leafValues></_>
        <_>
          <internalNodes>
            0 -1 92 -3.9138119667768478e-02</internalNodes>
          <leafValues>
            3.6733573675155640e-01 -2.4403934180736542e-01</leafValues></_>
        <_>
          <internalNodes>
            0 -1 33 1.9614716991782188e-02</internalNodes>
          <leafValues>
            -1.8166419863700867e-01 5.8291447162628174e-01</leafValues></_>
        <_>
          <internalNodes>
            0 -1 63 1.0614253114908934e-03</internalNodes>
          <leafValues>
            -2.6209670305252075e-01 2.9847133159637451e-01</leafValues></_>
        <_>
          <internalNodes>
            0 -1 65 -8.6969193071126938e-03</internalNodes>
          <leafValues>
            6.8122315406799316e-01 -1.3772155344486237e-01</leafValues></_>
        <_>
          <internalNodes>
            0 -1 94 -4.2134271934628487e-03</internalNodes>
          <leafValues>
            -7.3906135559082031e-01 1.5203239023685455e-01</leafValues></_>
        <_>
          <internalNodes>
            0 -1 82 6.5369606018066406e-03</internalNodes>
          <leafValues>
            1.0414317995309830e-01 -5.5431598424911499e-01</leafValues></_>
        <_>
          <internalNodes>
            0 -1 93 -1.3080033659934998e-01</internalNodes>
          <leafValues>
            6.9382011890411377e-01 -1.2027043849229813e-01</leafValues></_>
        <_>
          <internalNodes>
            0 -1 71 8.8872820138931274e-02</internalNodes>
          <leafValues>
            -9.7414344549179077e-02 7.1019911766052246e-01</leafValues></_>
        <_>
          <internalNodes>
            0 -1 98 -2.1987460553646088e-02</internalNodes>
          <leafValues>
            8.0968320369720459e-01 -8.7819471955299377e-02</leafValues></_>
        <_>
          <internalNodes>
            0 -1 9 1.2631022371351719e-02</internalNodes>
          <leafValues>
            -1.3533122837543488e-01 5.9441369771957397e-01</leafValues></_>
        <_>
          <internalNodes>
            0 -1 91 1.9774703832808882e-04</internalNodes>
          <leafValues>
            1.6090402007102966e-01 -4.2003035545349121e-01</leafValues></_></weakClassifiers></_>
    <!-- stage 8 -->
    <_>
      <maxWeakCount>14</maxWeakCount>
      <stageThreshold>-1.2325483560562134e+00</stageThreshold>
      <weakClassifiers>
        <_>
          <internalNodes>
            0 -1 67 -1.5410671010613441e-02</internalNodes>
          <leafValues>
            3.7230122089385986e-01 -3.3434328436851501e-01</leafValues></_>
        <_>
          <internalNodes>
            0 -1 107 1.6898166388273239e-02</internalNodes>
          <leafValues>
            -2.7466019988059998e-01 3.4710636734962463e-01</leafValues></_>
        <_>
          <internalNodes>
            0 -1 106 7.1293325163424015e-05</internalNodes>
          <leafValues>
            2.0625515282154083e-01 -4.9103549122810364e-01</leafValues></_>
        <_>
          <internalNodes>
            0 -1 74 -5.6585827842354774e-03</internalNodes>
          <leafValues>
            -8.0377900600433350e-01 1.6544170677661896e-01</leafValues></_>
        <_>
          <internalNodes>
            0 -1 61 -4.0064164204522967e-04</internalNodes>
          <leafValues>
            2.0951063930988312e-01 -3.7765938043594360e-01</leafValues></_>
        <_>
          <internalNodes>
            0 -1 121 -3.3568381331861019e-04</internalNodes>
          <leafValues>
            -5.5489522218704224e-01 1.7015820741653442e-01</leafValues></_>
        <_>
          <internalNodes>
            0 -1 55 -6.5920064225792885e-03</internalNodes>
          <leafValues>
            3.0557918548583984e-01 -2.7855464816093445e-01</leafValues></_>
        <_>
          <internalNodes>
            0 -1 22 -2.8720546513795853e-02</internalNodes>
          <leafValues>
            6.4892619848251343e-01 -1.0783095657825470e-01</leafValues></_>
        <_>
          <internalNodes>
            0 -1 40 -5.0151102244853973e-02</internalNodes>
          <leafValues>
            6.1458075046539307e-01 -1.2634153664112091e-01</leafValues></_>
        <_>
          <internalNodes>
            0 -1 32 -8.1518664956092834e-03</internalNodes>
          <leafValues>
            4.3528801202774048e-01 -1.8029978871345520e-01</leafValues></_>
        <_>
          <internalNodes>
            0 -1 73 3.7516534794121981e-03</internalNodes>
          <leafValues>
            -3.2688084244728088e-01 3.2634457945823669e-01</leafValues></_>
        <_>
          <internalNodes>
            0 -1 35 -1.0453851893544197e-02</internalNodes>
          <leafValues>
            5.0209468603134155e-01 -1.6257886588573456e-01</leafValues></_>
        <_>
          <internalNodes>
            0 -1 38 -5.5528705706819892e-04</internalNodes>
          <leafValues>
            2.4102543294429779e-01 -3.4787654876708984e-01</leafValues></_>
        <_>
          <internalNodes>
            0 -1 42 -2.8278771787881851e-04</internalNodes>
          <leafValues>
            -5.5897128582000732e-01 1.4479169249534607e-01</leafValues></_></weakClassifiers></_>
    <!-- stage 9 -->
    <_>
      <maxWeakCount>18</maxWeakCount>
      <stageThreshold>-1.1019787788391113e+00</stageThreshold>
      <weakClassifiers>
        <_>
          <internalNodes>
            0 -1 59 -2.3814907763153315e-03</internalNodes>
          <leafValues>
            1.1807095259428024e-01 -3.9370399713516235e-01</leafValues></_>
        <_>
          <internalNodes>
            0 -1 5 1.4633985119871795e-04</internalNodes>
          <leafValues>
            1.5054744482040405e-01 -4.5686396956443787e-01</leafValues></_>
        <_>
          <internalNodes>
            0 -1 114 8.4014493040740490e-04</internalNodes>
          <leafValues>
            9.4847097992897034e-02 -6.6271561384201050e-01</leafValues></_>
        <_>
          <internalNodes>
            0 -1 127 -4.4474258902482688e-04</internalNodes>
          <leafValues>
            -4.1507476568222046e-01 1.7860125005245209e-01</leafValues></_>
        <_>
          <internalNodes>
            0 -1 128 -6.9722975604236126e-03</internalNodes>
          <leafValues>
            3.0223184823989868e-01 -2.4065278470516205e-01</leafValues></_>
        <_>
          <internalNodes>
            0 -1 118 1.3329373905435205e-04</internalNodes>
          <leafValues>
            1.9990836083889008e-01 -3.4887212514877319e-01</leafValues></_>
        <_>
          <internalNodes>
            0 -1 126 -1.8344625830650330e-02</internalNodes>
          <leafValues>
            3.4287127852439880e-01 -2.1797919273376465e-01</leafValues></_>
        <_>
          <internalNodes>
            0 -1 115 -2.0700735040009022e-03</internalNodes>
          <leafValues>
            -5.9347307682037354e-01 1.1988008767366409e-01</leafValues></_>
        <_>
          <internalNodes>
            0 -1 83 -7.0174634456634521e-03</internalNodes>
          <leafValues>
            2.0352579653263092e-01 -2.8973847627639771e-01</leafValues></_>
        <_>
          <internalNodes>
            0 -1 14 -2.9557935893535614e-02</internalNodes>
          <leafValues>
            5.0125223398208618e-01 -1.3110722601413727e-01</leafValues></_>
        <_>
          <internalNodes>
            0 -1 13 2.1637523546814919e-02</internalNodes>
          <leafValues>
            -7.9003445804119110e-02 7.4101841449737549e-01</leafValues></_>
        <_>
          <internalNodes>
            0 -1 44 -1.5707363188266754e-01</internalNodes>
          <leafValues>
            7.7882170677185059e-01 -7.3652371764183044e-02</leafValues></_>
        <_>
          <internalNodes>
            0 -1 96 -3.6196148721501231e-04</internalNodes>
          <leafValues>
            -3.8773229718208313e-01 1.7617729306221008e-01</leafValues></_>
        <_>
          <internalNodes>
            0 -1 29 4.9323248676955700e-03</internalNodes>
          <leafValues>
            -1.6364359855651855e-01 4.3207192420959473e-01</leafValues></_>
        <_>
          <internalNodes>
            0 -1 116 1.3087656043353491e-05</internalNodes>
          <leafValues>
            -2.8749096393585205e-01 2.3578135669231415e-01</leafValues></_>
        <_>
          <internalNodes>
            0 -1 100 4.1684266179800034e-03</internalNodes>
          <leafValues>
            -2.1803782880306244e-01 3.0594056844711304e-01</leafValues></_>
        <_>
          <internalNodes>
            0 -1 30 3.2730988459661603e-04</internalNodes>
          <leafValues>
            1.5091723203659058e-01 -5.0057226419448853e-01</leafValues></_>
        <_>
          <internalNodes>
            0 -1 122 2.8053030837327242e-03</internalNodes>
          <leafValues>
            -2.0765854418277740e-01 3.2993268966674805e-01</leafValues></_></weakClassifiers></_></stages>
  <features>
    <_>
      <rects>
        <_>
          0 0 10 2 -1.</_>
        <_>
          0 1 10 1 2.</_></rects>
      <tilted>0</tilted></_>
    <_>
      <rects>
        <_>
          0 1 6 3 -1.</_>
        <_>
          0 2 6 1 3.</_></rects>
      <tilted>0</tilted></_>
    <_>
      <rects>
        <_>
          0 1 24 4 -1.</_>
        <_>
          0 1 12 2 2.</_>
        <_>
          12 3 12 2 2.</_></rects>
      <tilted>0</tilted></_>
    <_>
      <rects>
        <_>
          0 1 21 2 -1.</_>
        <_>
          0 2 21 1 2.</_></rects>
      <tilted>0</tilted></_>
    <_>
      <rects>
        <_>
          0 2 10 2 -1.</_>
        <_>
          0 2 5 1 2.</_>
        <_>
          5 3 5 1 2.</_></rects>
      <tilted>0</tilted></_>
    <_>
      <rects>
        <_>
          0 4 2 1 -1.</_>
        <_>
          1 4 1 1 2.</_></rects>
      <tilted>0</tilted></_>
    <_>
      <rects>
        <_>
          0 4 2 7 -1.</_>
        <_>
          1 4 1 7 2.</_></rects>
      <tilted>0</tilted></_>
    <_>
      <rects>
        <_>
          0 4 24 2 -1.</_>
        <_>
          6 4 12 2 2.</_></rects>
      <tilted>0</tilted></_>
    <_>
      <rects>
        <_>
          0 4 24 20 -1.</_>
        <_>
          0 4 12 10 2.</_>
        <_>
          12 14 12 10 2.</_></rects>
      <tilted>0</tilted></_>
    <_>
      <rects>
        <_>
          0 6 24 3 -1.</_>
        <_>
          0 7 24 1 3.</_></rects>
      <tilted>0</tilted></_>
    <_>
      <rects>
        <_>
          0 7 22 6 -1.</_>
        <_>
          0 7 11 3 2.</_>
        <_>
          11 10 11 3 2.</_></rects>
      <tilted>0</tilted></_>
    <_>
      <rects>
        <_>
          0 7 24 6 -1.</_>
        <_>
          0 9 24 2 3.</_></rects>
      <tilted>0</tilted></_>
    <_>
      <rects>
        <_>
          0 8 6 14 -1.</_>
        <_>
          2 8 2 14 3.</_></rects>
      <tilted>0</tilted></_>
    <_>
      <rects>
        <_>
          0 8 24 2 -1.</_>
        <_>
          0 9 24 1 2.</_></rects>
      <tilted>0</tilted></_>
    <_>
      <rects>
        <_>
          0 8 24 4 -1.</_>
        <_>
          0 9 24 2 2.</_></rects>
      <tilted>0</tilted></_>
    <_>
      <rects>
        <_>
          0 9 20 4 -1.</_>
        <_>
          10 9 10 4 2.</_></rects>
      <tilted>0</tilted></_>
    <_>
      <rects>
        <_>
          0 12 3 7 -1.</_>
        <_>
          1 12 1 7 3.</_></rects>
      <tilted>0</tilted></_>
    <_>
      <rects>
        <_>
          0 12 19 3 -1.</_>
        <_>
          0 13 19 1 3.</_></rects>
      <tilted>0</tilted></_>
    <_>
      <rects>
        <_>
          0 15 3 5 -1.</_>
        <_>
          1 15 1 5 3.</_></rects>
      <tilted>0</tilted></_>
    <_>
      <rects>
        <_>
          0 15 2 4 -1.</_>
        <_>
          0 16 2 2 2.</_></rects>
      <tilted>0</tilted></_>
    <_>
      <rects>
        <_>
          0 15 16 2 -1.</_>
        <_>
          0 15 8 1 2.</_>
        <_>
          8 16 8 1 2.</_></rects>
      <tilted>0</tilted></_>
    <_>
      <rects>
        <_>
          0 15 15 3 -1.</_>
        <_>
          0 16 15 1 3.</_></rects>
      <tilted>0</tilted></_>
    <_>
      <rects>
        <_>
          0 15 24 4 -1.</_>
        <_>
          0 16 24 2 2.</_></rects>
      <tilted>0</tilted></_>
    <_>
      <rects>
        <_>
          0 18 22 2 -1.</_>
        <_>
          0 18 11 1 2.</_>
        <_>
          11 19 11 1 2.</_></rects>
      <tilted>0</tilted></_>
    <_>
      <rects>
        <_>
          0 21 3 3 -1.</_>
        <_>
          1 21 1 3 3.</_></rects>
      <tilted>0</tilted></_>
    <_>
      <rects>
        <_>
          0 21 2 2 -1.</_>
        <_>
          0 22 2 1 2.</_></rects>
      <tilted>0</tilted></_>
    <_>
      <rects>
        <_>
          1 8 22 4 -1.</_>
        <_>
          1 8 11 2 2.</_>
        <_>
          12 10 11 2 2.</_></rects>
      <tilted>0</tilted></_>
    <_>
      <rects>
        <_>
          1 10 18 3 -1.</_>
        <_>
          1 11 18 1 3.</_></rects>
      <tilted>0</tilted></_>
    <_>
      <rects>
        <_>
          1 11 18 2 -1.</_>
        <_>
          1 11 9 1 2.</_>
        <_>
          10 12 9 1 2.</_></rects>
      <tilted>0</tilted></_>
    <_>
      <rects>
        <_>
          1 18 14 2 -1.</_>
        <_>
          1 18 7 1 2.</_>
        <_>
          8 19 7 1 2.</_></rects>
      <tilted>0</tilted></_>
    <_>
      <rects>
        <_>
          2 0 2 2 -1.</_>
        <_>
          3 0 1 2 2.</_></rects>
      <tilted>0</tilted></_>
    <_>
      <rects>
        <_>
          2 0 3 2 -1.</_>
        <_>
          3 0 1 2 3.</_></rects>
      <tilted>0</tilted></_>
    <_>
      <rects>
        <_>
          2 0 16 4 -1.</_>
        <_>
          2 1 16 2 2.</_></rects>
      <tilted>0</tilted></_>
    <_>
      <rects>
        <_>
          2 11 22 3 -1.</_>
        <_>
          2 12 22 1 3.</_></rects>
      <tilted>0</tilted></_>
    <_>
      <rects>
        <_>
          2 19 3 4 -1.</_>
        <_>
          3 19 1 4 3.</_></rects>
      <tilted>0</tilted></_>
    <_>
      <rects>
        <_>
          2 20 21 3 -1.</_>
        <_>
          2 21 21 1 3.</_></rects>
      <tilted>0</tilted></_>
    <_>
      <rects>
        <_>
          2 23 3 1 -1.</_>
        <_>
          3 23 1 1 3.</_></rects>
      <tilted>0</tilted></_>
    <_>
      <rects>
        <_>
          3 0 1 2 -1.</_>
        <_>
          3 0 1 1 2.</_></rects>
      <tilted>1</tilted></_>
    <_>
      <rects>
        <_>
          3 1 2 16 -1.</_>
        <_>
          4 1 1 16 2.</_></rects>
      <tilted>0</tilted></_>
    <_>
      <rects>
        <_>
          3 2 3 3 -1.</_>
        <_>
          4 3 1 1 9.</_></rects>
      <tilted>0</tilted></_>
    <_>
      <rects>
        <_>
          3 2 18 1 -1.</_>
        <_>
          9 8 6 1 3.</_></rects>
      <tilted>1</tilted></_>
    <_>
      <rects>
        <_>
          3 10 2 4 -1.</_>
        <_>
          4 10 1 4 2.</_></rects>
      <tilted>0</tilted></_>
    <_>
      <rects>
        <_>
          3 14 2 1 -1.</_>
        <_>
          4 14 1 1 2.</_></rects>
      <tilted>0</tilted></_>
    <_>
      <rects>
        <_>
          4 0 11 3 -1.</_>
        <_>
          4 1 11 1 3.</_></rects>
      <tilted>0</tilted></_>
    <_>
      <rects>
        <_>
          4 1 16 4 -1.</_>
        <_>
          8 5 8 4 2.</_></rects>
      <tilted>1</tilted></_>
    <_>
      <rects>
        <_>
          4 2 2 12 -1.</_>
        <_>
          4 5 2 6 2.</_></rects>
      <tilted>0</tilted></_>
    <_>
      <rects>
        <_>
          4 2 3 3 -1.</_>
        <_>
          4 3 3 1 3.</_></rects>
      <tilted>0</tilted></_>
    <_>
      <rects>
        <_>
          4 7 2 4 -1.</_>
        <_>
          4 8 2 2 2.</_></rects>
      <tilted>0</tilted></_>
    <_>
      <rects>
        <_>
          4 20 3 1 -1.</_>
        <_>
          5 20 1 1 3.</_></rects>
      <tilted>0</tilted></_>
    <_>
      <rects>
        <_>
          4 20 3 3 -1.</_>
        <_>
          5 20 1 3 3.</_></rects>
      <tilted>0</tilted></_>
    <_>
      <rects>
        <_>
          5 0 1 4 -1.</_>
        <_>
          5 0 1 2 2.</_></rects>
      <tilted>1</tilted></_>
    <_>
      <rects>
        <_>
          5 0 1 21 -1.</_>
        <_>
          5 7 1 7 3.</_></rects>
      <tilted>0</tilted></_>
    <_>
      <rects>
        <_>
          5 0 12 3 -1.</_>
        <_>
          9 0 4 3 3.</_></rects>
      <tilted>0</tilted></_>
    <_>
      <rects>
        <_>
          5 0 8 3 -1.</_>
        <_>
          5 1 8 1 3.</_></rects>
      <tilted>0</tilted></_>
    <_>
      <rects>
        <_>
          5 1 2 8 -1.</_>
        <_>
          5 5 2 4 2.</_></rects>
      <tilted>0</tilted></_>
    <_>
      <rects>
        <_>
          5 10 12 2 -1.</_>
        <_>
          5 10 12 1 2.</_></rects>
      <tilted>1</tilted></_>
    <_>
      <rects>
        <_>
          5 12 4 3 -1.</_>
        <_>
          6 12 2 3 2.</_></rects>
      <tilted>0</tilted></_>
    <_>
      <rects>
        <_>
          5 13 6 6 -1.</_>
        <_>
          7 13 2 6 3.</_></rects>
      <tilted>0</tilted></_>
    <_>
      <rects>
        <_>
          5 13 6 7 -1.</_>
        <_>
          7 13 2 7 3.</_></rects>
      <tilted>0</tilted></_>
    <_>
      <rects>
        <_>
          5 14 7 4 -1.</_>
        <_>
          5 15 7 2 2.</_></rects>
      <tilted>0</tilted></_>
    <_>
      <rects>
        <_>
          5 20 17 3 -1.</_>
        <_>
          5 21 17 1 3.</_></rects>
      <tilted>0</tilted></_>
    <_>
      <rects>
        <_>
          6 0 2 1 -1.</_>
        <_>
          6 0 1 1 2.</_></rects>
      <tilted>1</tilted></_>
    <_>
      <rects>
        <_>
          6 0 1 8 -1.</_>
        <_>
          6 2 1 4 2.</_></rects>
      <tilted>0</tilted></_>
    <_>
      <rects>
        <_>
          6 0 4 3 -1.</_>
        <_>
          5 1 4 1 3.</_></rects>
      <tilted>1</tilted></_>
    <_>
      <rects>
        <_>
          6 0 6 22 -1.</_>
        <_>
          6 11 6 11 2.</_></rects>
      <tilted>0</tilted></_>
    <_>
      <rects>
        <_>
          6 1 4 11 -1.</_>
        <_>
          7 1 2 11 2.</_></rects>
      <tilted>0</tilted></_>
    <_>
      <rects>
        <_>
          6 1 8 2 -1.</_>
        <_>
          6 1 8 1 2.</_></rects>
      <tilted>1</tilted></_>
    <_>
      <rects>
        <_>
          6 4 6 2 -1.</_>
        <_>
          8 6 2 2 3.</_></rects>
      <tilted>1</tilted></_>
    <_>
      <rects>
        <_>
          6 16 18 2 -1.</_>
        <_>
          6 16 9 1 2.</_>
        <_>
          15 17 9 1 2.</_></rects>
      <tilted>0</tilted></_>
    <_>
      <rects>
        <_>
          6 18 4 2 -1.</_>
        <_>
          7 18 2 2 2.</_></rects>
      <tilted>0</tilted></_>
    <_>
      <rects>
        <_>
          7 0 10 2 -1.</_>
        <_>
          7 1 10 1 2.</_></rects>
      <tilted>0</tilted></_>
    <_>
      <rects>
        <_>
          7 4 12 7 -1.</_>
        <_>
          10 7 6 7 2.</_></rects>
      <tilted>1</tilted></_>
    <_>
      <rects>
        <_>
          7 6 4 4 -1.</_>
        <_>
          7 6 4 2 2.</_></rects>
      <tilted>1</tilted></_>
    <_>
      <rects>
        <_>
          8 0 9 2 -1.</_>
        <_>
          8 1 9 1 2.</_></rects>
      <tilted>0</tilted></_>
    <_>
      <rects>
        <_>
          8 1 2 4 -1.</_>
        <_>
          7 2 2 2 2.</_></rects>
      <tilted>1</tilted></_>
    <_>
      <rects>
        <_>
          8 2 5 3 -1.</_>
        <_>
          8 3 5 1 3.</_></rects>
      <tilted>0</tilted></_>
    <_>
      <rects>
        <_>
          8 3 14 2 -1.</_>
        <_>
          8 3 7 1 2.</_>
        <_>
          15 4 7 1 2.</_></rects>
      <tilted>0</tilted></_>
    <_>
      <rects>
        <_>
          8 5 3 6 -1.</_>
        <_>
          9 5 1 6 3.</_></rects>
      <tilted>0</tilted></_>
    <_>
      <rects>
        <_>
          8 13 9 2 -1.</_>
        <_>
          8 13 9 1 2.</_></rects>
      <tilted>1</tilted></_>
    <_>
      <rects>
        <_>
          8 23 16 1 -1.</_>
        <_>
          12 23 8 1 2.</_></rects>
      <tilted>0</tilted></_>
    <_>
      <rects>
        <_>
          9 0 7 2 -1.</_>
        <_>
          9 1 7 1 2.</_></rects>
      <tilted>0</tilted></_>
    <_>
      <rects>
        <_>
          9 3 4 12 -1.</_>
        <_>
          10 3 2 12 2.</_></rects>
      <tilted>0</tilted></_>
    <_>
      <rects>
        <_>
          9 5 6 8 -1.</_>
        <_>
          12 5 3 8 2.</_></rects>
      <tilted>0</tilted></_>
    <_>
      <rects>
        <_>
          9 14 10 8 -1.</_>
        <_>
          14 14 5 8 2.</_></rects>
      <tilted>0</tilted></_>
    <_>
      <rects>
        <_>
          9 14 12 2 -1.</_>
        <_>
          9 15 12 1 2.</_></rects>
      <tilted>0</tilted></_>
    <_>
      <rects>
        <_>
          9 14 12 8 -1.</_>
        <_>
          9 16 12 4 2.</_></rects>
      <tilted>0</tilted></_>
    <_>
      <rects>
        <_>
          10 0 5 4 -1.</_>
        <_>
          10 2 5 2 2.</_></rects>
      <tilted>0</tilted></_>
    <_>
      <rects>
        <_>
          10 3 12 12 -1.</_>
        <_>
          10 7 12 4 3.</_></rects>
      <tilted>0</tilted></_>
    <_>
      <rects>
        <_>
          10 15 2 1 -1.</_>
        <_>
          10 15 1 1 2.</_></rects>
      <tilted>1</tilted></_>
    <_>
      <rects>
        <_>
          10 15 3 4 -1.</_>
        <_>
          11 15 1 4 3.</_></rects>
      <tilted>0</tilted></_>
    <_>
      <rects>
        <_>
          10 15 12 4 -1.</_>
        <_>
          10 16 12 2 2.</_></rects>
      <tilted>0</tilted></_>
    <_>
      <rects>
        <_>
          10 23 4 1 -1.</_>
        <_>
          11 23 2 1 2.</_></rects>
      <tilted>0</tilted></_>
    <_>
      <rects>
        <_>
          11 2 12 5 -1.</_>
        <_>
          14 5 6 5 2.</_></rects>
      <tilted>1</tilted></_>
    <_>
      <rects>
        <_>
          11 8 10 6 -1.</_>
        <_>
          11 8 5 6 2.</_></rects>
      <tilted>1</tilted></_>
    <_>
      <rects>
        <_>
          11 10 8 3 -1.</_>
        <_>
          13 10 4 3 2.</_></rects>
      <tilted>0</tilted></_>
    <_>
      <rects>
        <_>
          12 15 5 4 -1.</_>
        <_>
          12 15 5 2 2.</_></rects>
      <tilted>1</tilted></_>
    <_>
      <rects>
        <_>
          12 22 6 2 -1.</_>
        <_>
          12 23 6 1 2.</_></rects>
      <tilted>0</tilted></_>
    <_>
      <rects>
        <_>
          13 3 5 3 -1.</_>
        <_>
          13 4 5 1 3.</_></rects>
      <tilted>0</tilted></_>
    <_>
      <rects>
        <_>
          13 3 11 3 -1.</_>
        <_>
          13 4 11 1 3.</_></rects>
      <tilted>0</tilted></_>
    <_>
      <rects>
        <_>
          13 5 4 6 -1.</_>
        <_>
          14 5 2 6 2.</_></rects>
      <tilted>0</tilted></_>
    <_>
      <rects>
        <_>
          14 1 6 4 -1.</_>
        <_>
          14 2 6 2 2.</_></rects>
      <tilted>0</tilted></_>
    <_>
      <rects>
        <_>
          14 2 3 6 -1.</_>
        <_>
          15 4 1 2 9.</_></rects>
      <tilted>0</tilted></_>
    <_>
      <rects>
        <_>
          14 2 7 3 -1.</_>
        <_>
          14 3 7 1 3.</_></rects>
      <tilted>0</tilted></_>
    <_>
      <rects>
        <_>
          14 2 8 3 -1.</_>
        <_>
          14 3 8 1 3.</_></rects>
      <tilted>0</tilted></_>
    <_>
      <rects>
        <_>
          14 12 4 2 -1.</_>
        <_>
          15 12 2 2 2.</_></rects>
      <tilted>0</tilted></_>
    <_>
      <rects>
        <_>
          14 14 8 1 -1.</_>
        <_>
          14 14 4 1 2.</_></rects>
      <tilted>1</tilted></_>
    <_>
      <rects>
        <_>
          14 15 2 3 -1.</_>
        <_>
          15 15 1 3 2.</_></rects>
      <tilted>0</tilted></_>
    <_>
      <rects>
        <_>
          15 0 9 4 -1.</_>
        <_>
          15 2 9 2 2.</_></rects>
      <tilted>0</tilted></_>
    <_>
      <rects>
        <_>
          15 7 6 7 -1.</_>
        <_>
          15 7 3 7 2.</_></rects>
      <tilted>1</tilted></_>
    <_>
      <rects>
        <_>
          16 0 6 1 -1.</_>
        <_>
          18 0 2 1 3.</_></rects>
      <tilted>0</tilted></_>
    <_>
      <rects>
        <_>
          16 0 6 4 -1.</_>
        <_>
          16 2 6 2 2.</_></rects>
      <tilted>0</tilted></_>
    <_>
      <rects>
        <_>
          16 2 3 8 -1.</_>
        <_>
          16 6 3 4 2.</_></rects>
      <tilted>0</tilted></_>
    <_>
      <rects>
        <_>
          16 3 8 2 -1.</_>
        <_>
          16 3 4 1 2.</_>
        <_>
          20 4 4 1 2.</_></rects>
      <tilted>0</tilted></_>
    <_>
      <rects>
        <_>
          16 15 2 5 -1.</_>
        <_>
          17 15 1 5 2.</_></rects>
      <tilted>0</tilted></_>
    <_>
      <rects>
        <_>
          16 16 2 4 -1.</_>
        <_>
          16 16 1 2 2.</_>
        <_>
          17 18 1 2 2.</_></rects>
      <tilted>0</tilted></_>
    <_>
      <rects>
        <_>
          16 18 4 2 -1.</_>
        <_>
          18 18 2 2 2.</_></rects>
      <tilted>0</tilted></_>
    <_>
      <rects>
        <_>
          17 23 4 1 -1.</_>
        <_>
          18 23 2 1 2.</_></rects>
      <tilted>0</tilted></_>
    <_>
      <rects>
        <_>
          18 9 3 12 -1.</_>
        <_>
          19 9 1 12 3.</_></rects>
      <tilted>0</tilted></_>
    <_>
      <rects>
        <_>
          18 11 4 2 -1.</_>
        <_>
          20 11 2 2 2.</_></rects>
      <tilted>0</tilted></_>
    <_>
      <rects>
        <_>
          18 16 3 5 -1.</_>
        <_>
          19 16 1 5 3.</_></rects>
      <tilted>0</tilted></_>
    <_>
      <rects>
        <_>
          19 0 1 4 -1.</_>
        <_>
          19 2 1 2 2.</_></rects>
      <tilted>0</tilted></_>
    <_>
      <rects>
        <_>
          19 2 3 1 -1.</_>
        <_>
          20 2 1 1 3.</_></rects>
      <tilted>0</tilted></_>
    <_>
      <rects>
        <_>
          19 3 3 4 -1.</_>
        <_>
          19 4 3 2 2.</_></rects>
      <tilted>0</tilted></_>
    <_>
      <rects>
        <_>
          19 4 5 12 -1.</_>
        <_>
          19 8 5 4 3.</_></rects>
      <tilted>0</tilted></_>
    <_>
      <rects>
        <_>
          20 0 3 1 -1.</_>
        <_>
          21 0 1 1 3.</_></rects>
      <tilted>0</tilted></_>
    <_>
      <rects>
        <_>
          20 0 2 2 -1.</_>
        <_>
          21 0 1 2 2.</_></rects>
      <tilted>0</tilted></_>
    <_>
      <rects>
        <_>
          20 9 4 9 -1.</_>
        <_>
          20 9 2 9 2.</_></rects>
      <tilted>1</tilted></_>
    <_>
      <rects>
        <_>
          21 0 3 3 -1.</_>
        <_>
          22 0 1 3 3.</_></rects>
      <tilted>0</tilted></_>
    <_>
      <rects>
        <_>
          21 6 3 6 -1.</_>
        <_>
          22 8 1 2 9.</_></rects>
      <tilted>0</tilted></_>
    <_>
      <rects>
        <_>
          21 9 3 12 -1.</_>
        <_>
          21 12 3 6 2.</_></rects>
      <tilted>0</tilted></_>
    <_>
      <rects>
        <_>
          22 2 2 3 -1.</_>
        <_>
          23 2 1 3 2.</_></rects>
      <tilted>0</tilted></_>
    <_>
      <rects>
        <_>
          22 8 2 3 -1.</_>
        <_>
          22 9 2 1 3.</_></rects>
      <tilted>0</tilted></_>
    <_>
      <rects>
        <_>
          22 16 2 6 -1.</_>
        <_>
          22 16 1 6 2.</_></rects>
      <tilted>1</tilted></_>
    <_>
      <rects>
        <_>
          23 1 1 2 -1.</_>
        <_>
          23 2 1 1 2.</_></rects>
      <tilted>0</tilted></_></features></cascade>
</opencv_storage>
